{
  "ModelName": "EMNIST_Model",
  "CreatedAt": "2026-04-25 21:07:44",
  "Layers": [
    {
      "Type": "DENSE",
      "Rows": 784,
      "Cols": 64,
      "Weights": [
        [
          -0.092305906,
          -0.05329565,
          -0.006482443,
          0.027105348,
          -0.09962293,
          -0.08936242,
          -0.054703917,
          -0.08202623,
          0.06647749,
          0.05782491,
          0.08341012,
          0.06754379,
          -0.005831609,
          -0.093549155,
          -0.076571435,
          0.037474822,
          0.06650087,
          -0.016477114,
          0.044565313,
          0.040992636,
          -0.045451418,
          -0.09275171,
          -0.06790568,
          0.034140438,
          0.064161345,
          -0.034888998,
          0.09121561,
          -0.09780979,
          -0.038264226,
          -0.09515201,
          -0.024615811,
          -0.03391066,
          0.043406945,
          -0.049989644,
          0.017516373,
          0.03640805,
          -0.066565104,
          -0.025061218,
          -0.035404757,
          0.08623187,
          -0.07891994,
          0.05138186,
          -0.011912249,
          -0.029250305,
          0.011910256,
          0.029140359,
          0.09610901,
          -0.04663946,
          -0.08154096,
          -0.04116644,
          0.08045736,
          0.08979069,
          -0.06714611,
          -0.07970696,
          -0.0915808,
          0.036772363,
          -0.064053275,
          0.0135578,
          -0.06401295,
          0.079647966,
          -0.0056362976,
          -0.010277865,
          -0.026323216,
          0.030722223
        ],
        [
          -0.042863853,
          -0.02607676,
          -0.08922502,
          0.0056125834,
          -0.04226887,
          -0.02962383,
          -0.07169571,
          -0.058752216,
          0.03652285,
          -0.064210236,
          -0.01074449,
          -0.07979017,
          -0.03814803,
          0.049308058,
          0.09276741,
          0.018076709,
          0.08705948,
          0.02470972,
          0.06655039,
          0.09625474,
          0.085785225,
          -0.014479547,
          0.09320456,
          0.081756026,
          0.0903768,
          -0.09957259,
          0.047521044,
          -0.08157851,
          -0.021709811,
          0.024905117,
          -0.064563274,
          -0.022938581,
          0.090564094,
          0.042137194,
          -0.03135796,
          -0.05730977,
          0.024005234,
          0.013316624,
          0.09733416,
          0.026163409,
          -0.015341949,
          -0.04654206,
          0.02308033,
          -0.054848574,
          -0.014576026,
          -0.020556105,
          -0.04634415,
          0.09993913,
          -0.0024847132,
          -0.00044097687,
          0.058290396,
          -0.045889027,
          -0.03459914,
          0.06654566,
          0.072529815,
          -0.0745581,
          -0.017797304,
          -0.08998215,
          -0.04932812,
          -0.03969058,
          0.0879803,
          0.019579137,
          0.052063063,
          0.036311563
        ],
        [
          -0.08253545,
          0.055020757,
          -0.098076425,
          -0.07827983,
          0.0999795,
          0.06472302,
          0.010527121,
          0.0007763825,
          0.043794062,
          -0.049588636,
          -0.06479559,
          0.06600313,
          -0.03685547,
          -0.09747597,
          -0.01994429,
          -0.09389009,
          -0.08172563,
          0.06493396,
          0.02621051,
          0.044701733,
          -0.08815129,
          0.02130417,
          0.08938232,
          0.05203278,
          0.026995447,
          -0.076390676,
          0.08930785,
          -0.072704546,
          0.026825923,
          0.044277888,
          -0.06942759,
          0.08801299,
          0.08244316,
          -0.056212205,
          0.040876262,
          -0.022621868,
          0.06384948,
          -0.074905366,
          0.011450722,
          0.015893837,
          -0.050796658,
          0.0067848284,
          0.008194053,
          0.024108836,
          0.02118116,
          0.012689088,
          -0.07468616,
          -0.08691754,
          0.07260127,
          0.034831204,
          0.03873222,
          0.09612784,
          0.058082376,
          -0.029186774,
          0.08605128,
          -0.09082756,
          0.09079874,
          0.09905259,
          0.008308465,
          0.018924195,
          -0.0404125,
          -0.08452496,
          -0.04724178,
          -0.077622004
        ],
        [
          0.060270935,
          -0.09886729,
          0.057830982,
          0.067901775,
          -0.015329262,
          0.0026898466,
          0.04640887,
          0.09147532,
          0.09540689,
          -0.011038231,
          0.07016268,
          -0.099914044,
          -0.025354259,
          0.0038827306,
          -0.07249223,
          0.08043578,
          0.048075717,
          -0.037776075,
          0.026232129,
          0.021563401,
          0.026632695,
          -0.074806534,
          0.09484389,
          0.042094655,
          -0.05622288,
          -0.004260971,
          -0.08965256,
          0.03508917,
          0.028110433,
          -0.025898183,
          0.0275141,
          0.03973756,
          -0.044396874,
          0.030129626,
          0.0026570915,
          -0.01934276,
          -0.027285125,
          -0.091147095,
          -0.058613386,
          -0.046018198,
          0.027126191,
          -0.033674836,
          -0.098314226,
          -0.095816,
          -0.01773613,
          -0.013695358,
          -0.081763625,
          0.073143356,
          0.058831777,
          0.031333067,
          0.08352095,
          0.07327504,
          0.021333039,
          0.06435317,
          0.0684826,
          0.031184345,
          0.08035453,
          0.0003013005,
          0.09375744,
          -0.0767842,
          -0.031743396,
          -0.025454592,
          -0.090409055,
          -0.04159492
        ],
        [
          0.08679985,
          0.06368577,
          -0.0853839,
          -0.07444357,
          -0.009821181,
          -0.049855273,
          0.05189144,
          0.019170009,
          -0.081454046,
          0.013199156,
          -0.071743615,
          0.040327888,
          0.03370938,
          -0.017454572,
          0.09842826,
          0.05514461,
          -0.033583414,
          0.06018206,
          0.06893395,
          0.009485823,
          0.039948698,
          0.027830087,
          -0.068374574,
          0.06992821,
          -0.05073834,
          0.08733718,
          -0.018731171,
          0.056507494,
          -0.096317746,
          0.0038772784,
          -0.02242692,
          0.0005335734,
          0.07401598,
          -0.08575996,
          0.039235637,
          -0.08413536,
          -0.08155567,
          0.09094908,
          0.04891242,
          -0.07640884,
          -0.054969925,
          -0.0011530381,
          0.032972995,
          0.018484255,
          0.098720305,
          -0.05184271,
          -0.07379131,
          0.08589774,
          0.014723548,
          0.0017040147,
          0.09511538,
          -0.006414512,
          -0.070998505,
          -0.063713335,
          -0.08575571,
          0.026660694,
          0.01211934,
          -0.06006583,
          0.09031099,
          -0.0617724,
          -0.065193735,
          0.041869476,
          -0.05594196,
          -0.096997626
        ],
        [
          -0.0016558476,
          -0.0004460911,
          -0.031257246,
          -0.045556903,
          0.0059145154,
          0.042087253,
          -0.08810509,
          0.017589213,
          -0.021840364,
          0.050148573,
          0.047722433,
          -0.04660891,
          -0.05673539,
          -0.09042155,
          -0.098291926,
          0.034758653,
          -0.035031192,
          -0.035263877,
          0.051709678,
          -0.0417241,
          -0.0946,
          -0.018289639,
          -0.01772204,
          0.024978686,
          0.078731075,
          -0.032137495,
          0.08131942,
          0.05920574,
          -0.068301395,
          -0.029055294,
          -0.05204832,
          0.07376072,
          -0.03211965,
          -0.029290695,
          -0.06030894,
          -0.09777526,
          0.040534034,
          -0.045970786,
          0.053075764,
          -0.05917805,
          0.06463206,
          -0.06310388,
          -0.010057798,
          -0.04478366,
          -0.03942794,
          -0.0027942853,
          0.0005967125,
          0.037003536,
          0.016816642,
          -0.052219596,
          -0.09978897,
          0.06377538,
          0.09745926,
          0.0897514,
          -0.01867854,
          -0.08154985,
          0.0981087,
          -0.08694633,
          -0.018241463,
          0.004743812,
          -0.05285577,
          -0.02229019,
          -0.0066395625,
          -0.029999424
        ],
        [
          -0.038805984,
          -0.050213717,
          -0.045287907,
          -0.07906436,
          0.018482728,
          -0.035535567,
          0.05894937,
          0.028161671,
          0.013274825,
          -0.061108246,
          0.075117595,
          0.070133634,
          -0.0070876884,
          -0.0014877449,
          -0.0028464634,
          -0.010649982,
          0.018779745,
          0.0669714,
          -0.033592,
          -0.061607607,
          -0.057447333,
          -0.035249885,
          0.06606716,
          0.09550752,
          -0.005303736,
          0.082894176,
          -0.07425619,
          -0.074662104,
          0.013301258,
          0.027717577,
          0.029359475,
          -0.060004234,
          -0.08952577,
          0.08288207,
          -0.09018438,
          -0.035266068,
          0.009198683,
          -0.07221415,
          0.011263786,
          -0.014910305,
          0.061227445,
          0.08131603,
          -0.09514336,
          -0.006448545,
          -0.05243885,
          -0.035487756,
          0.0889971,
          0.03247029,
          0.07374895,
          -0.014003603,
          0.03863104,
          -0.04373787,
          0.099768996,
          -0.03037923,
          0.08669601,
          -0.045743722,
          -0.09393615,
          -0.08476475,
          0.03486083,
          -0.08251604,
          0.053675916,
          0.05679367,
          0.052082278,
          0.07420883
        ],
        [
          -0.049908843,
          -0.08947713,
          0.034257382,
          0.094190136,
          -0.029251205,
          0.033574026,
          0.0031123678,
          -0.031136634,
          0.06074028,
          0.045717742,
          0.022839852,
          -0.07276654,
          -0.059649725,
          0.06903193,
          0.0814284,
          -0.0021223398,
          0.058913045,
          -0.026765008,
          0.029331597,
          0.065200195,
          -0.026606303,
          0.031416114,
          0.03884014,
          -0.015272941,
          -0.08763534,
          0.002490688,
          0.011038302,
          0.051854618,
          -0.07085111,
          0.018644536,
          -0.07030977,
          0.049225215,
          -0.043324184,
          -0.09749063,
          -0.046083555,
          0.0445726,
          -0.020095948,
          0.046593435,
          0.09758725,
          -0.036098264,
          -0.0608894,
          0.020589475,
          0.05182542,
          0.09946335,
          -0.054346975,
          -0.09766251,
          -0.09952226,
          0.07548505,
          -0.022966446,
          -0.017738609,
          -0.03954717,
          -0.09788478,
          0.0025350363,
          -0.06728562,
          0.0055782767,
          0.038655736,
          0.08481826,
          0.091401644,
          -0.01093064,
          0.045302488,
          -0.050232034,
          -0.069335856,
          0.092874505,
          0.043104623
        ],
        [
          -0.045722824,
          -0.006669666,
          0.0103142755,
          -0.097909175,
          -0.011801833,
          0.018178824,
          0.036997475,
          0.0016688653,
          -0.07166951,
          0.0060325162,
          0.040687907,
          -0.011319491,
          0.0835517,
          0.07229984,
          -0.07968142,
          0.023292033,
          -0.047318432,
          -0.04685114,
          0.09179452,
          0.06373742,
          0.01721271,
          0.071915396,
          0.022525337,
          -0.06534488,
          -0.06599227,
          -0.09184266,
          -0.086605035,
          -0.015876364,
          0.06594821,
          -0.07738603,
          0.09790811,
          0.0053290203,
          0.032486614,
          0.097746424,
          0.07405357,
          0.016229115,
          0.037768196,
          -0.08825314,
          0.04027013,
          -0.09779417,
          -0.025630109,
          -0.0899271,
          -0.048003726,
          0.07660414,
          0.04535922,
          -0.0054122265,
          -0.012431754,
          0.08270072,
          -0.028753364,
          0.033683,
          -0.014364817,
          -0.0079395585,
          -0.05948103,
          0.067825325,
          -0.037366986,
          -0.088657364,
          0.05969302,
          -0.0896525,
          0.02495824,
          -0.037232067,
          0.06544177,
          0.07202936,
          0.03676759,
          -0.026731497
        ],
        [
          0.06939138,
          0.036954477,
          -0.0337686,
          -0.08917441,
          0.04490691,
          -0.02988547,
          0.007655677,
          -0.08883121,
          0.018099317,
          0.05850094,
          -0.07768863,
          0.031229991,
          -0.035831757,
          -0.093238905,
          -0.08507169,
          0.07791345,
          -0.07818928,
          -0.045879263,
          -0.08076268,
          -0.04533277,
          0.07600169,
          0.036190804,
          0.011859397,
          0.0047319173,
          -0.06545717,
          0.06912544,
          -0.07728178,
          0.09165113,
          0.022612894,
          0.027707119,
          -0.09788618,
          -0.08211803,
          -0.045646418,
          -0.011116314,
          0.056792375,
          -0.035039097,
          -0.05885543,
          0.08812535,
          -0.029241355,
          0.022552637,
          0.025939588,
          0.072106756,
          0.043772493,
          0.025265645,
          -0.050084867,
          -0.028538465,
          -0.05817656,
          0.024599902,
          0.083734386,
          -0.02736331,
          0.057211947,
          0.05492804,
          -0.054966375,
          -0.030784404,
          -0.04359309,
          -0.068342865,
          -0.037913553,
          -0.08396685,
          0.030479908,
          -0.0744938,
          -0.05652969,
          -0.0014267757,
          -0.033029314,
          -0.06551358
        ],
        [
          -0.038601045,
          -0.043402478,
          0.016687857,
          0.006202094,
          0.09751492,
          -0.015030645,
          -0.039501317,
          -0.042515904,
          -0.08275843,
          -0.03896934,
          -0.07842893,
          0.020334626,
          -0.018920997,
          -0.07770204,
          0.0026797766,
          -0.042550787,
          0.018684598,
          -0.021917617,
          0.037493,
          -0.04392291,
          0.049662024,
          -0.05822751,
          0.032656394,
          -0.042317607,
          -0.0908608,
          0.01978671,
          -0.040487066,
          0.01894975,
          0.01132745,
          0.019388892,
          -0.025011482,
          0.0139035415,
          0.09194052,
          0.014965602,
          -0.06865112,
          -0.08900823,
          0.041264806,
          -0.09411069,
          -0.03374003,
          -0.09883241,
          -0.05764522,
          -0.07743178,
          0.025906611,
          0.051730104,
          -0.04395717,
          0.09386751,
          0.01947981,
          -0.043628924,
          0.08377154,
          -0.07928099,
          -0.061094966,
          0.029415129,
          0.066076085,
          -0.013309404,
          -0.0020299337,
          -0.08278929,
          0.0004523764,
          -0.06933828,
          0.04912665,
          -0.041630607,
          0.0026558903,
          -0.001933494,
          -0.096346594,
          0.05704253
        ],
        [
          0.089538604,
          0.017503899,
          0.05164391,
          0.033231944,
          0.02871131,
          0.0747035,
          0.044721764,
          0.064898685,
          0.06288367,
          -0.0959876,
          0.04109789,
          -0.07102914,
          0.01859674,
          -0.01940132,
          0.030482389,
          -0.012697794,
          0.06210784,
          0.03168963,
          -0.013952402,
          0.031762652,
          0.0025512087,
          -0.076033995,
          -0.037229877,
          0.008192561,
          -0.07573351,
          -0.005318596,
          -0.018998664,
          0.06583933,
          -0.01542725,
          -0.013999392,
          0.08800977,
          -0.035016928,
          -0.08204949,
          -0.07909597,
          -0.070307,
          0.015070289,
          0.05150514,
          -0.042571172,
          0.04827025,
          0.042195726,
          0.06790676,
          -0.024777448,
          -0.09040965,
          -0.095846735,
          -0.08991645,
          0.09452179,
          0.05742819,
          -0.00750482,
          -0.046619978,
          -0.085853025,
          -0.0073164767,
          -0.028848333,
          0.06413702,
          0.08953825,
          0.03550427,
          0.005205112,
          0.007447148,
          -0.047176085,
          0.06280981,
          -0.06974719,
          -0.06287027,
          0.01134575,
          0.08969701,
          -0.022404365
        ],
        [
          -0.08171219,
          0.041916296,
          -0.018046262,
          0.07727699,
          0.037872884,
          -0.024564734,
          0.031820256,
          -0.046203174,
          0.045086585,
          0.022382855,
          -0.056602903,
          -0.074216686,
          -0.031324107,
          0.097357675,
          0.027524969,
          0.013885223,
          -0.04172088,
          -0.01705073,
          -0.03363098,
          -0.0485068,
          -0.040663943,
          -0.07270485,
          0.08139469,
          -0.047859438,
          -0.040091563,
          -0.07497744,
          -0.094301,
          0.010644376,
          0.03645783,
          0.011467353,
          -0.012034811,
          -0.008463222,
          -0.05675173,
          0.0634463,
          -0.058023363,
          -0.03358976,
          -0.076592416,
          -0.043855075,
          -0.052036297,
          -0.0915753,
          -0.029734476,
          -0.05224169,
          0.05108596,
          0.04855625,
          -0.0025152476,
          -0.0023608597,
          0.07400267,
          -0.07997817,
          -0.015016687,
          -0.041266847,
          0.013378273,
          0.083267964,
          0.0664512,
          -0.08363373,
          -0.087009214,
          -0.013786318,
          0.004375392,
          -0.07971505,
          -0.027267057,
          0.038523197,
          0.007839704,
          0.033095542,
          0.0042283367,
          0.025506768
        ],
        [
          -0.051275134,
          -0.0380952,
          0.082148,
          -0.031658098,
          -0.027524969,
          -0.009713414,
          -0.068812065,
          -0.028582292,
          0.040682875,
          0.0961853,
          -0.075763665,
          -0.035170555,
          0.026471766,
          0.06373955,
          0.027076822,
          0.07746835,
          -0.084344454,
          0.084441766,
          0.06017954,
          -0.09362187,
          -0.07524052,
          -0.093042806,
          -0.06328832,
          -0.005167139,
          0.066565655,
          0.09646647,
          0.020321457,
          0.073375545,
          -0.071404256,
          -0.06845574,
          -0.069371186,
          -0.044611838,
          -0.03563153,
          -0.01931303,
          -0.028780343,
          -0.08296845,
          0.07349808,
          0.05674452,
          0.09156047,
          0.0425581,
          0.068990245,
          0.055926222,
          -0.0132320095,
          0.080533594,
          0.016752422,
          -0.07849714,
          0.06064265,
          -0.08585431,
          0.044913147,
          0.034440927,
          0.09251052,
          0.05270871,
          0.09786569,
          0.09862317,
          0.016158607,
          -0.034451738,
          -0.0010189975,
          0.0053007337,
          0.05504073,
          0.06843789,
          0.078197315,
          -0.0119197,
          0.08946756,
          0.012833343
        ],
        [
          -0.004055735,
          0.026364936,
          0.022855122,
          -0.08551609,
          -0.021942416,
          -0.017147003,
          0.05469884,
          -0.07382085,
          -0.048425227,
          0.088414654,
          -0.004685888,
          0.045880646,
          -0.07469775,
          -0.06959297,
          -0.029122848,
          0.045533802,
          0.046478983,
          0.040287536,
          0.088213764,
          -0.054248765,
          -0.05281601,
          0.09530676,
          -0.0895897,
          0.084852114,
          -0.09776926,
          -0.0019068394,
          -0.06826472,
          -0.053379927,
          0.005011844,
          0.014885695,
          -0.061745204,
          0.09925559,
          -0.021157699,
          -0.059452157,
          -0.0136369215,
          0.096724875,
          0.0032407676,
          -0.08151169,
          -0.07911384,
          -0.059338287,
          0.08911547,
          0.049196295,
          -0.021497637,
          -0.016045926,
          -0.0030146146,
          -0.02004935,
          0.052139334,
          -0.06938752,
          0.0073596253,
          -0.07757551,
          0.042922366,
          0.061635796,
          -0.021512263,
          0.0022127226,
          -0.014386992,
          0.040487707,
          -0.05549317,
          0.01719585,
          -0.0997137,
          0.063341714,
          -0.018308753,
          0.060556035,
          -0.039702307,
          -0.06754367
        ],
        [
          -0.04808836,
          -0.063496105,
          0.028409883,
          0.08447975,
          0.021305747,
          0.049701706,
          -0.055622768,
          -0.08323129,
          -0.07609539,
          -0.017175008,
          -0.07201985,
          0.0639851,
          -0.070448965,
          -0.06088454,
          -0.07189041,
          -0.03436603,
          3.0980187E-05,
          -0.044970587,
          0.0758713,
          0.0733224,
          -0.062564015,
          -0.0044913557,
          0.061423134,
          -0.09703272,
          -0.09767147,
          0.077730484,
          -0.083493516,
          0.021224553,
          -0.07108576,
          -0.09609098,
          -0.040034216,
          0.089486405,
          0.0534197,
          -0.014107729,
          -0.044687822,
          0.086488724,
          -0.047742832,
          -0.048943754,
          -0.014319582,
          0.057557497,
          0.08656271,
          -0.041541707,
          -0.08610356,
          0.07866248,
          0.06316369,
          -0.016102556,
          0.075179696,
          0.084442474,
          -0.028038874,
          -0.07821485,
          0.09663324,
          -0.058715176,
          -0.07064628,
          0.063396394,
          -0.050628398,
          0.06707896,
          0.02920479,
          0.09551166,
          0.025519047,
          -0.008969782,
          0.062370583,
          0.09711497,
          0.009675977,
          0.06656555
        ],
        [
          0.09669186,
          -0.048644748,
          -0.014311148,
          -0.022455774,
          -0.001353309,
          0.07139301,
          0.03508289,
          -0.038320564,
          -0.01563007,
          0.076300845,
          0.08879019,
          -0.07704245,
          -0.006828737,
          0.09842474,
          0.015116463,
          0.024257556,
          -0.09890186,
          0.0075608124,
          0.09814655,
          0.010590545,
          0.06789809,
          0.06160103,
          -0.029249907,
          0.06826617,
          -0.07822631,
          0.03910032,
          -0.010347272,
          0.0462862,
          0.08511865,
          0.041354425,
          0.093077414,
          0.032504633,
          0.030866124,
          0.0011090817,
          0.050402846,
          0.030794572,
          0.045655414,
          -0.0018620917,
          0.060069587,
          0.07919788,
          -0.055148326,
          0.0012703044,
          0.070516735,
          -0.0060506724,
          0.097612284,
          -0.023556354,
          -0.054600194,
          0.03273828,
          -0.037181135,
          0.05092859,
          -0.088121034,
          -0.096233964,
          0.089763634,
          0.001483148,
          0.05104663,
          0.048441444,
          0.058410246,
          -0.06277215,
          -0.097164795,
          -0.09308213,
          -0.023435805,
          0.04297496,
          0.040702302,
          0.005413587
        ],
        [
          0.058904253,
          0.099047236,
          -0.042389777,
          -0.04389876,
          0.07466616,
          -0.07352668,
          -0.028785588,
          0.06786739,
          -0.042363323,
          0.044061106,
          -0.009260304,
          0.06470064,
          -0.03099596,
          0.056412823,
          -0.08569559,
          -0.027276976,
          0.08246272,
          0.08360007,
          -0.048638172,
          0.08166647,
          0.016683392,
          0.060176622,
          0.0868261,
          0.088686705,
          0.090294,
          0.09817213,
          0.036864858,
          0.08238,
          -0.06990883,
          -0.010545838,
          0.040187754,
          0.08152491,
          -0.019577984,
          -0.009230842,
          0.024904067,
          0.035369843,
          -0.066699035,
          -0.0073059592,
          0.04117504,
          0.040820017,
          -0.020953128,
          0.052408163,
          -0.013456917,
          0.02061707,
          0.07845677,
          -0.03947035,
          -0.0020466049,
          -0.074766874,
          -0.04172802,
          0.046075244,
          0.049918305,
          -0.07574929,
          -0.055735506,
          -0.06732688,
          0.017941266,
          -0.047810037,
          -0.045251034,
          -0.07646313,
          -0.059777465,
          0.044680454,
          0.09234284,
          -0.0002174447,
          0.07428643,
          0.0046767765
        ],
        [
          0.09081981,
          0.09306777,
          -0.04507796,
          -0.017365662,
          0.08456566,
          0.09566698,
          -0.031816892,
          -0.06657679,
          -0.055147607,
          -0.049616307,
          -0.019889366,
          -0.051701225,
          -0.0027370444,
          0.066742,
          0.0018769327,
          -0.02034488,
          -0.0034476547,
          0.031201992,
          -0.072853096,
          0.024390716,
          0.018092668,
          0.09846047,
          -0.07723527,
          -0.08721732,
          0.036356043,
          -0.098425314,
          -0.052447025,
          0.023474125,
          -0.012881537,
          -0.03170493,
          -0.004774781,
          0.023642758,
          0.037594706,
          0.015976889,
          0.055512436,
          0.09855646,
          0.08457157,
          -0.041083753,
          0.0060189026,
          0.09760457,
          -0.024538694,
          -0.09902067,
          0.057020098,
          0.09588494,
          0.013980823,
          -0.053123765,
          -0.08563004,
          -0.055834986,
          -0.052736524,
          -0.08502896,
          0.021318488,
          0.028627763,
          0.0010214677,
          -0.06044517,
          0.015182883,
          -0.048445124,
          0.013347691,
          -0.08282981,
          0.066857636,
          0.08109242,
          0.06860475,
          0.07615122,
          0.012750439,
          -0.046199743
        ],
        [
          -0.08332577,
          -0.076934315,
          0.07311882,
          0.028372604,
          -0.0662624,
          0.055550914,
          0.003580474,
          0.045199245,
          -0.020632746,
          -0.048813313,
          -0.09693025,
          0.066814,
          -0.09329842,
          -0.063875265,
          0.019283852,
          -0.028304948,
          0.07788558,
          -0.015097322,
          0.037515037,
          -0.03883967,
          0.052713,
          -0.099058494,
          0.013611422,
          -0.07563222,
          -0.020332675,
          0.098045565,
          0.051784936,
          -0.064083256,
          -0.07828473,
          -0.025513865,
          -0.049756024,
          -0.06736641,
          -0.03903292,
          0.06189157,
          0.06825711,
          0.053443927,
          0.017819837,
          0.05693067,
          -8.1252634E-05,
          -0.071814805,
          0.06911962,
          0.033514153,
          0.08602083,
          0.051766846,
          0.08558862,
          -0.005101552,
          0.029152526,
          -0.077180885,
          -0.0040596263,
          0.015194305,
          -0.01837164,
          -0.000911626,
          0.08590251,
          0.0043711476,
          0.088519774,
          -0.009229287,
          0.01886158,
          0.03766274,
          -0.06288523,
          -0.013479542,
          -0.07923627,
          -0.012966561,
          -0.04208818,
          0.06843657
        ],
        [
          0.048211884,
          0.053190928,
          0.0358743,
          0.044032667,
          0.021365901,
          -0.0035500468,
          -0.004948646,
          -0.009623949,
          -0.008962797,
          0.06611686,
          -0.05500481,
          0.02586716,
          -0.049334124,
          0.09860611,
          0.043839104,
          0.030196631,
          0.035571937,
          -0.081601374,
          -0.0543849,
          -0.06273995,
          0.08788133,
          0.051007032,
          0.030080272,
          0.08835438,
          -0.0046113357,
          -0.024940183,
          -0.08382793,
          -0.07922033,
          -0.078977324,
          -0.03992597,
          0.06793536,
          -0.042000074,
          0.008656841,
          0.041208502,
          0.015231132,
          0.09482216,
          -0.083077304,
          0.08302082,
          0.04156406,
          -0.04216248,
          -0.032947674,
          -0.03298831,
          0.060665403,
          -0.008331026,
          -0.07259119,
          -0.0034488156,
          0.08063372,
          0.03254397,
          0.058263097,
          -0.011071143,
          0.026828831,
          -0.09540091,
          0.049246337,
          -0.0945714,
          -0.08488097,
          -0.080562614,
          0.09344324,
          0.0889771,
          -0.06090336,
          -0.048079863,
          -0.06196756,
          -0.03831129,
          0.08694522,
          0.061074436
        ],
        [
          -0.022774879,
          0.08825692,
          -0.068622164,
          0.008184905,
          -0.08296239,
          0.040797524,
          0.05305676,
          0.043153714,
          -0.09154167,
          0.08776323,
          0.008565988,
          -0.01503043,
          0.011263533,
          -0.06004505,
          -0.027937189,
          0.057753224,
          -0.061299402,
          0.048694104,
          0.04371017,
          0.008161652,
          0.041485094,
          -0.049971223,
          0.05450071,
          0.093212396,
          0.047828484,
          0.029122686,
          0.048232447,
          -0.036176607,
          0.03855734,
          -0.0953285,
          0.08908311,
          -0.052595094,
          -0.0626058,
          0.06634119,
          0.0737303,
          0.026702762,
          0.04651843,
          -0.006556214,
          0.050293706,
          0.060309995,
          -0.08571197,
          -0.0778686,
          0.07616518,
          0.031282116,
          0.002674021,
          -0.0645706,
          -0.0041391472,
          -0.070065446,
          -0.02132041,
          0.091223426,
          0.042733274,
          -0.09734634,
          0.030497745,
          -0.075705834,
          0.0515724,
          -0.06504664,
          0.061519783,
          -0.09118249,
          -0.03631151,
          -0.022408059,
          0.068518974,
          0.038067788,
          -0.09914101,
          -0.014382263
        ],
        [
          -0.086440586,
          -0.0803118,
          -0.016645316,
          0.08347254,
          -0.097827114,
          0.01859335,
          -0.009727141,
          0.09822738,
          0.06390019,
          -0.064667545,
          0.02404819,
          0.0630671,
          0.035521742,
          -0.049201448,
          -0.021062978,
          0.08419584,
          0.020107927,
          0.06850252,
          -0.01184124,
          0.06716754,
          -0.078373946,
          -0.01347758,
          0.04666698,
          -0.02632185,
          0.0808229,
          0.018196573,
          -0.07045478,
          -0.042536806,
          0.08145566,
          0.051684197,
          -0.0046989615,
          0.06702708,
          -0.02124735,
          -0.011283323,
          -0.08402814,
          0.039422017,
          0.0005230101,
          -0.078258276,
          0.043861702,
          -0.043240458,
          0.041193042,
          -0.08886644,
          -0.07562389,
          0.06649213,
          0.07132796,
          -0.08055105,
          0.04826434,
          0.025620146,
          -0.099030204,
          -0.022230111,
          -0.007485513,
          0.0407091,
          -0.035793845,
          0.052893873,
          0.07513607,
          -0.015948525,
          0.0835404,
          -0.08751044,
          0.031087806,
          -0.072952114,
          -0.08812934,
          -0.080086246,
          0.00939717,
          -0.07916964
        ],
        [
          -0.04835154,
          -0.02630321,
          -0.09095156,
          -0.04386859,
          0.093440324,
          -0.037160374,
          0.01578089,
          -0.062452428,
          -0.007938325,
          0.095274836,
          0.0071014278,
          -0.063925974,
          0.029115943,
          0.08952478,
          0.016194303,
          -0.07352777,
          -0.018386737,
          -0.0622101,
          -0.09231406,
          0.05914988,
          -0.008608412,
          0.03255285,
          -0.075817056,
          -0.018287739,
          0.070795916,
          -0.053779345,
          -0.012406045,
          0.060422957,
          -0.07360955,
          0.019443903,
          -0.044473782,
          -0.055042665,
          0.07892233,
          0.032858454,
          0.0025179149,
          -0.0991239,
          0.00012427426,
          0.072871804,
          -0.09965013,
          0.03268745,
          0.040823013,
          0.030453147,
          -0.09749344,
          -0.031577986,
          -0.021047268,
          -0.06736467,
          -0.01093563,
          0.0595839,
          -0.0613092,
          -0.015450291,
          -0.062960915,
          0.093483865,
          0.02704458,
          -0.07112954,
          -0.022254612,
          0.009441574,
          -0.09811028,
          -0.05496804,
          -0.06926811,
          -0.018082917,
          0.047090292,
          -0.05688266,
          0.023034895,
          0.060766842
        ],
        [
          0.008423705,
          -0.07452687,
          0.08261807,
          0.07159934,
          0.023753129,
          0.09342531,
          -0.053312574,
          0.01512981,
          -0.013423556,
          -0.083654456,
          -0.08106036,
          0.027624082,
          -0.011262551,
          -0.066985734,
          -0.07061791,
          -0.07260639,
          -0.04387083,
          0.04442038,
          -0.0419354,
          -0.04994231,
          -0.024612276,
          -0.06104381,
          -0.042107496,
          -0.021991463,
          0.009667994,
          -0.06424231,
          0.030372143,
          0.0047828616,
          -0.09937725,
          -0.027119996,
          0.0683885,
          -0.09967509,
          0.0058092372,
          0.01889443,
          -0.024190871,
          -0.026985053,
          0.011390898,
          -0.07350856,
          0.05813247,
          -0.07749801,
          -0.018381147,
          0.041240413,
          0.015941951,
          0.0786226,
          -0.025894491,
          -0.06110399,
          -0.07583023,
          0.090007484,
          0.03296235,
          0.05058181,
          0.078701906,
          -0.01999086,
          -0.04159551,
          -0.04583802,
          0.019395178,
          -0.021232408,
          -0.019197252,
          -0.0986226,
          -0.035029355,
          -0.040926386,
          0.0024629987,
          0.06628767,
          0.0021297417,
          0.09259828
        ],
        [
          -0.003650062,
          0.036987808,
          -0.06299082,
          -0.049096476,
          0.0089492565,
          0.08748902,
          0.04947396,
          -0.058702793,
          0.01087843,
          -0.09987962,
          -0.079502195,
          0.03654806,
          -0.070192635,
          -0.042549565,
          -0.030568598,
          0.023382405,
          0.0106624225,
          0.073207915,
          0.081022054,
          0.05761003,
          0.00019509305,
          -0.0027292431,
          -0.034602907,
          0.043094788,
          -0.08419178,
          -0.07930206,
          -0.004813127,
          -0.06420346,
          0.05504239,
          -0.06825943,
          -0.024225412,
          0.0037276442,
          0.004789434,
          0.06861565,
          -0.0017976707,
          0.07415852,
          -0.056151442,
          -0.07781427,
          0.03417781,
          0.098211445,
          0.009958595,
          0.0017507261,
          -0.033264805,
          0.055366542,
          -0.028214047,
          -0.06432116,
          -0.04026628,
          0.084777355,
          0.013295593,
          0.06550043,
          0.046879586,
          -0.08415712,
          0.033148464,
          -0.053439252,
          -0.05213922,
          -0.023603892,
          -0.024056185,
          0.016104434,
          0.019682972,
          -0.062867254,
          -0.028317805,
          -0.081840105,
          0.017281916,
          0.09677458
        ],
        [
          -0.008826183,
          0.026288906,
          -0.055583544,
          -0.016905818,
          0.075609244,
          -0.042637482,
          0.09025335,
          0.07842555,
          -0.03376899,
          0.074179135,
          -0.016796947,
          -0.08727796,
          0.03748074,
          -0.000332345,
          0.09355154,
          -0.023063729,
          -0.0767223,
          -0.001303755,
          0.075386,
          -0.08306794,
          -0.03528556,
          0.023446659,
          0.03477971,
          0.0007927748,
          -0.09669684,
          -0.080133684,
          0.051200837,
          0.027008757,
          -0.08899339,
          0.037163023,
          -0.07817617,
          -0.022386357,
          -0.05486405,
          -0.09560324,
          -0.014490155,
          -0.011584012,
          -0.091226675,
          0.032095846,
          -0.054306943,
          0.064956844,
          0.09622796,
          0.09738883,
          0.054326784,
          0.014727571,
          0.08411693,
          -0.039765544,
          -0.023394974,
          0.027280403,
          0.07803492,
          0.045140516,
          -0.044873342,
          -0.0989808,
          0.031262934,
          -0.007663097,
          -0.05620113,
          0.07833984,
          -0.06166581,
          0.07315853,
          0.04774325,
          0.014346171,
          0.054111876,
          -0.059294574,
          -0.044005737,
          -0.07947331
        ],
        [
          -0.0062219286,
          -0.06609333,
          -0.09174247,
          0.0044310233,
          0.0054496746,
          0.030607082,
          -0.097461164,
          0.034083787,
          -0.08862223,
          0.048040558,
          0.09211187,
          -0.06351648,
          -0.08203028,
          -0.06396625,
          -0.011308203,
          -0.07754133,
          0.008429726,
          0.088787794,
          0.017730175,
          0.04661414,
          -0.054460518,
          0.08395993,
          0.046277937,
          0.05053101,
          0.09123693,
          0.04755427,
          0.070943564,
          0.0120787,
          0.05693733,
          -0.04966961,
          0.023968967,
          0.05272044,
          0.086053655,
          -0.052102637,
          0.07176341,
          0.05617797,
          -0.047775615,
          0.011226214,
          0.026972424,
          0.05078411,
          -0.05174726,
          0.056390423,
          0.016195605,
          0.014847363,
          0.027682407,
          -0.03719002,
          0.036841884,
          0.060021665,
          0.022720829,
          0.01863056,
          -0.08199347,
          0.05999816,
          -0.029610738,
          -0.019543318,
          0.02928801,
          0.07876241,
          0.010996297,
          -0.058585044,
          0.023283053,
          -0.022881504,
          -0.0051445793,
          -0.05284003,
          -0.011843325,
          -0.039959967
        ],
        [
          -0.011625784,
          -0.05460526,
          0.018043863,
          0.041266803,
          0.03920417,
          0.0116291735,
          -0.032130398,
          -0.004727724,
          -0.06443894,
          -0.08700562,
          -0.09471268,
          0.034433965,
          -0.050314747,
          0.09260534,
          0.030361446,
          0.055918947,
          -0.031872854,
          -0.0150756305,
          -0.092498474,
          -0.08569538,
          0.08245522,
          0.07926151,
          0.047397666,
          -0.010934767,
          -0.05631179,
          -0.08295351,
          0.012952595,
          0.017309729,
          0.07999945,
          -0.07994205,
          -0.037107833,
          0.029067265,
          0.08214624,
          -0.05798199,
          -0.041199427,
          0.09167772,
          0.051831476,
          0.081199974,
          -0.07074873,
          -0.0035705264,
          0.08700464,
          -0.040531084,
          0.00046875697,
          0.02013065,
          0.04890077,
          0.07780267,
          0.0973525,
          0.051161315,
          -0.07172721,
          0.039653625,
          -0.07959677,
          -0.013782069,
          0.048663337,
          -0.08394714,
          -0.04255492,
          -0.05547079,
          0.06563746,
          -0.060470182,
          0.09664662,
          -0.06797996,
          -0.039088376,
          0.05246204,
          0.056661557,
          -0.07566167
        ],
        [
          -0.44633546,
          -0.021945497,
          -0.21214427,
          -0.16326691,
          0.17451903,
          -0.051508542,
          0.60198194,
          0.035187982,
          -0.18326339,
          -0.06195341,
          0.04280879,
          0.46244088,
          -0.51350147,
          -0.03126277,
          0.6564138,
          -0.42883822,
          0.017750118,
          -0.72241366,
          -0.049460564,
          0.67492115,
          0.16970442,
          0.37953085,
          0.028207703,
          0.5871301,
          0.49677515,
          -0.04644132,
          -0.79919344,
          0.04176863,
          0.03674292,
          -0.48743227,
          0.5809066,
          -0.58165246,
          0.6234804,
          -0.4645946,
          0.16293731,
          0.35833064,
          -0.04385007,
          -0.24473011,
          0.040023718,
          -0.015087129,
          -0.0026647525,
          -0.04578547,
          0.24495262,
          -0.36886302,
          -0.630974,
          0.45871717,
          0.24996096,
          0.07314993,
          -0.13435555,
          -0.12408344,
          0.05112255,
          0.038298137,
          0.7449039,
          -0.44916657,
          0.39916992,
          0.6518715,
          -0.014866708,
          -0.23127912,
          -0.09913206,
          0.09271816,
          -0.59089524,
          -0.11981817,
          -0.053545237,
          -0.12136796
        ],
        [
          -1.1076653,
          -0.2329849,
          -0.64610785,
          -0.8157398,
          0.16550197,
          -0.056410022,
          -0.07006248,
          1.0668591,
          0.15923968,
          0.9306994,
          -0.4886378,
          -0.84346145,
          -0.46254936,
          1.2698265,
          -0.81106114,
          -1.2191632,
          -1.1280563,
          0.09746286,
          -0.93579906,
          0.25642458,
          0.65833515,
          0.12043508,
          0.98813915,
          1.0745023,
          0.19891587,
          0.84865963,
          0.1603181,
          -0.29150724,
          0.2946283,
          -0.89138526,
          -0.13833429,
          -0.13451298,
          0.824132,
          -0.2083144,
          0.5319966,
          0.40486038,
          0.35040978,
          -0.34240797,
          -0.66985464,
          -1.1338521,
          0.8432674,
          0.8307188,
          0.46325442,
          -0.28183478,
          -0.7690828,
          1.0637822,
          0.6921282,
          -1.0587087,
          -0.124130264,
          -0.046500735,
          0.13750274,
          -0.45352682,
          0.42095438,
          0.11368464,
          0.73228246,
          0.24565248,
          -0.39468122,
          0.6519626,
          -1.0438931,
          0.31393766,
          -1.0847102,
          -0.4211112,
          0.02289039,
          0.5952421
        ],
        [
          -0.65950596,
          -0.26180556,
          -0.70210403,
          0.10666376,
          0.9617199,
          -0.80502397,
          -0.2436572,
          1.0618181,
          -0.7493671,
          0.94208944,
          -0.04178983,
          -0.5421028,
          -0.077083886,
          0.76841646,
          -0.5020149,
          0.7918801,
          -0.6120273,
          -0.106292754,
          -1.1899688,
          0.73765355,
          0.25144562,
          -0.58465713,
          1.2432424,
          0.3764286,
          1.3103861,
          0.9088748,
          0.47884443,
          -0.10511939,
          0.44645056,
          -0.7524412,
          -0.122329034,
          0.6666592,
          -0.54946196,
          1.3920428,
          1.254936,
          0.70287466,
          0.7949644,
          0.1801781,
          -1.0975121,
          -1.2386851,
          0.8037517,
          0.080720596,
          1.5669571,
          -1.0881727,
          -0.73080325,
          1.1023449,
          0.2675648,
          0.1843574,
          0.11691551,
          -0.056377478,
          -0.26526368,
          -1.1890006,
          0.8907073,
          0.03301944,
          -0.14325693,
          0.38989836,
          -0.20081742,
          -0.029577114,
          -1.4467887,
          0.34518504,
          -0.7859055,
          -0.19543265,
          -0.29293752,
          0.28026927
        ],
        [
          -0.5258103,
          0.3324628,
          -0.95429003,
          -0.22443064,
          0.5978823,
          0.29311085,
          0.5291886,
          -0.4750726,
          -1.0851545,
          0.07637785,
          0.056075267,
          -0.9430013,
          0.37352392,
          0.20923698,
          0.03547815,
          1.2451861,
          0.40037325,
          1.3271556,
          -1.5616354,
          0.0048354524,
          1.1078681,
          -0.8110546,
          0.6839442,
          -0.57540464,
          0.986885,
          1.3342005,
          -0.0985073,
          0.4783404,
          -0.54504776,
          0.30994806,
          -0.45023003,
          -0.9426067,
          -0.5311795,
          0.76974833,
          1.2843506,
          0.37604964,
          1.392244,
          0.45021376,
          0.5693102,
          -1.3419616,
          0.50001794,
          -0.7731881,
          1.4759818,
          -1.6004902,
          0.73418695,
          0.98588437,
          -0.9779748,
          -0.26993805,
          0.07936969,
          -0.91381806,
          -0.520123,
          -1.114153,
          0.6816975,
          0.22996102,
          -0.11698478,
          0.19959131,
          0.47809145,
          -0.55196613,
          -0.6418548,
          -0.050607823,
          -1.1481849,
          -0.602182,
          -0.026772184,
          0.41423002
        ],
        [
          -1.4208701,
          -0.60846126,
          -0.68038726,
          0.5882662,
          0.72329235,
          0.88931656,
          -0.56030524,
          -0.118334375,
          -2.0653355,
          0.32089478,
          -0.39285633,
          0.5887202,
          0.90952665,
          0.46005118,
          -0.027489392,
          0.90447754,
          -1.237641,
          0.540333,
          -1.2022947,
          -0.7542094,
          0.70582026,
          0.1396105,
          0.6509429,
          0.80133486,
          0.97893614,
          0.18620546,
          0.6668171,
          0.39440063,
          -0.38929608,
          0.056884695,
          -0.85889983,
          -0.07748003,
          -0.012310834,
          0.9683103,
          1.3615164,
          -0.89011246,
          0.87003165,
          0.585873,
          -0.26684284,
          -0.03700897,
          -0.37791365,
          -0.9209957,
          0.96905875,
          -1.7158363,
          0.16918205,
          1.3758061,
          -0.689829,
          0.8589213,
          0.1547307,
          -0.49284357,
          -1.6395713,
          -1.6204536,
          0.89603907,
          1.1268271,
          0.4512238,
          0.6937794,
          0.5318198,
          0.36851513,
          -0.6774373,
          0.44187635,
          0.5639699,
          -0.7402992,
          -0.14583598,
          -0.23745608
        ],
        [
          -1.2205465,
          -0.18672484,
          -0.022975137,
          0.20849437,
          0.61453795,
          -0.41647816,
          -0.7432,
          -0.66938215,
          -1.7007564,
          0.057868533,
          0.07897369,
          0.59504867,
          -0.54850566,
          0.684308,
          0.057274755,
          0.57315016,
          0.029766666,
          0.7273874,
          -0.41118887,
          -0.19292863,
          0.33661014,
          -0.030331876,
          0.73039216,
          0.4027863,
          1.2906842,
          0.035344653,
          0.6253301,
          -0.38560396,
          -0.68225574,
          -0.22625703,
          -0.53462726,
          -0.34350178,
          -0.18265823,
          0.49936378,
          1.5081875,
          -1.029263,
          0.370128,
          0.37050018,
          -1.2052183,
          -0.51647186,
          0.20279759,
          -0.47459686,
          0.24343297,
          -1.4000436,
          0.12143019,
          0.5303948,
          0.20680846,
          0.6145076,
          -0.56739783,
          -0.3895722,
          -0.73991454,
          -0.56192064,
          0.97013044,
          -0.23230213,
          -0.4069308,
          0.13115901,
          1.1591651,
          0.013044699,
          -1.192912,
          0.7978161,
          -0.18880746,
          -0.37506017,
          0.7096636,
          -0.20811976
        ],
        [
          -0.46909583,
          -0.041816477,
          -1.0477241,
          -0.17623796,
          1.0346684,
          0.58601385,
          -0.6252412,
          -0.90288746,
          -0.25028065,
          -0.21707304,
          -0.28637782,
          0.7835238,
          0.13721314,
          0.2224937,
          0.3179751,
          -0.38574177,
          1.0911111,
          -0.19230066,
          0.021362098,
          -0.2559155,
          0.43441507,
          0.5841313,
          -0.55541116,
          1.1112998,
          0.7159587,
          0.3669191,
          0.9417203,
          -0.38757262,
          0.08362952,
          0.24211049,
          -0.9496511,
          -0.0692595,
          -0.5204332,
          -0.036322717,
          0.6028011,
          -0.7956538,
          0.38336027,
          0.4075548,
          -0.009473416,
          -0.7040198,
          -0.228629,
          -1.151246,
          -0.24723765,
          -1.4090633,
          1.0253108,
          -0.94854206,
          0.52566916,
          0.3361517,
          -0.18991475,
          -0.2374674,
          -0.7759245,
          -0.40226838,
          0.6682478,
          0.29197913,
          0.21371363,
          1.0001719,
          0.7809321,
          0.27894846,
          -0.56973857,
          1.1415249,
          0.9826046,
          0.23835534,
          -0.09598151,
          0.7171022
        ],
        [
          -0.59035444,
          0.42901707,
          -0.3718093,
          -0.009790295,
          1.0563551,
          -0.15022399,
          -0.26888603,
          -0.17655572,
          -0.45039845,
          0.6519963,
          0.55123895,
          1.2093507,
          0.08134057,
          0.4771014,
          0.09027793,
          -0.18212733,
          -0.750664,
          -0.50456166,
          -0.42652342,
          -0.40928426,
          0.5107336,
          0.72150713,
          -0.20382844,
          1.0990839,
          1.8633753,
          -0.048934996,
          1.494853,
          -0.21183965,
          -0.4801381,
          0.09888552,
          -0.66203463,
          -0.14717896,
          -0.72005117,
          0.13133088,
          1.18239,
          -0.4604621,
          0.3106549,
          -0.43664223,
          -0.8218906,
          -0.44778222,
          -1.0675315,
          -0.89794415,
          0.6697855,
          -1.2160424,
          1.2338082,
          -0.5952533,
          0.35850877,
          1.0307957,
          -0.71443224,
          -0.41936818,
          -1.1030971,
          -0.25397286,
          0.3735221,
          0.831648,
          0.3705656,
          0.5927871,
          0.42828366,
          0.011406447,
          0.21065636,
          1.2296112,
          0.5256016,
          0.2197581,
          0.41238916,
          -0.08889512
        ],
        [
          -0.77443635,
          0.23153539,
          -0.12729698,
          0.19517624,
          0.7046751,
          -0.40482816,
          -0.8406575,
          -0.2271506,
          -0.9248096,
          0.8415285,
          0.10335403,
          1.2056628,
          -0.14864781,
          0.195004,
          -0.04500223,
          0.42553502,
          -1.7714003,
          -0.21058083,
          0.16982138,
          -0.4668484,
          0.5030108,
          0.1817251,
          0.3544387,
          0.59037614,
          1.081109,
          -0.44695035,
          0.6800961,
          -0.47519273,
          -0.65339035,
          -0.65517277,
          -0.30218777,
          0.2698907,
          -0.28703454,
          0.118037865,
          0.4022366,
          -1.112809,
          0.0032212548,
          -0.22211626,
          -1.173195,
          -0.32307905,
          -1.2093574,
          -0.57602227,
          0.7000683,
          -1.1918259,
          0.624266,
          -0.4743153,
          -0.044940453,
          1.4617137,
          -0.33641845,
          -0.098052464,
          -1.084283,
          -0.1511296,
          0.8865889,
          0.699205,
          0.6573309,
          0.6398989,
          0.39634684,
          0.5041277,
          -0.07780141,
          1.1998256,
          0.465464,
          -0.18570817,
          0.324634,
          -0.41505113
        ],
        [
          -0.64610034,
          0.15848449,
          -0.40765864,
          -0.093639486,
          0.5471371,
          0.17400926,
          -0.88453555,
          -0.9411218,
          -0.4071844,
          0.5788549,
          -0.3508233,
          0.3264056,
          0.10432526,
          -0.3219505,
          -0.09376534,
          0.83652794,
          0.35395285,
          1.3088565,
          -0.012156708,
          -0.31935766,
          0.75666296,
          -0.3616341,
          0.40862474,
          -0.24270318,
          0.72094494,
          -0.11907509,
          -0.35349885,
          0.04571489,
          -1.0935842,
          0.40163544,
          -0.24446654,
          -0.018080533,
          -0.4728033,
          0.24998952,
          0.39818424,
          -0.41166046,
          0.3867427,
          0.022546297,
          0.1522288,
          -0.1517717,
          -1.8379897,
          -0.38442984,
          0.49601647,
          -0.9505436,
          0.4862897,
          -0.5548125,
          -0.78178155,
          1.4384354,
          -0.04569076,
          -0.03926801,
          -0.642158,
          -0.48648617,
          1.119846,
          -0.20567608,
          0.12756109,
          0.4628398,
          -0.10345331,
          0.19875295,
          -0.6867883,
          0.6621635,
          0.5490625,
          -0.10964072,
          -0.37643638,
          0.0063756304
        ],
        [
          0.7053099,
          -0.24502325,
          -0.82273203,
          -0.7351927,
          0.25914368,
          0.047845766,
          -0.8394942,
          -0.8953414,
          0.5259179,
          -0.18099858,
          0.031832498,
          0.89933264,
          -0.41946527,
          0.5029713,
          0.66398865,
          -0.23199417,
          -0.3008691,
          0.16130956,
          1.073281,
          0.81492114,
          0.49568862,
          -0.038410623,
          0.49895048,
          -0.45251912,
          0.3377777,
          -0.029402558,
          0.17053819,
          -0.63825464,
          -0.70171595,
          0.9066994,
          0.8068428,
          0.42450586,
          0.6642685,
          -0.2265883,
          0.31178194,
          0.25840223,
          0.8288825,
          0.46413726,
          0.2686562,
          0.36313805,
          -1.7434926,
          -1.4725509,
          0.2569981,
          -0.23836888,
          -0.09293992,
          -0.8456164,
          -0.20424797,
          1.5368336,
          0.46069476,
          0.60800546,
          -0.058127567,
          -0.119730175,
          1.2714927,
          -0.9636495,
          -0.4344704,
          1.0454258,
          -0.6639125,
          -0.33771312,
          -1.6655489,
          0.42276612,
          0.8165875,
          -0.90687907,
          -0.24172197,
          0.16339922
        ],
        [
          0.7810906,
          -0.6171636,
          -0.9526656,
          -0.8731576,
          -0.12481241,
          0.38249248,
          -1.0467532,
          -0.5720657,
          0.14707729,
          -0.5038769,
          -0.85804886,
          0.807264,
          0.11608511,
          0.72053766,
          0.38315743,
          0.14085473,
          -0.37356436,
          -0.3979,
          0.7115929,
          -0.003821831,
          0.50982755,
          0.4483896,
          -0.3656794,
          -0.6553932,
          -0.7589783,
          -0.014733502,
          0.15846702,
          -1.3021941,
          0.40854824,
          0.20468551,
          -0.4176784,
          0.09073564,
          0.87105453,
          0.13120162,
          0.14979903,
          -0.8379462,
          0.84466904,
          0.41689456,
          0.21907647,
          -0.08020691,
          -0.096254855,
          -0.46348882,
          -0.71681637,
          0.34481713,
          -0.051987372,
          -0.42270666,
          0.5541695,
          0.4083582,
          0.6357767,
          0.08776248,
          0.2185011,
          0.146926,
          0.17829761,
          -0.6647244,
          -0.4191978,
          0.47297233,
          -0.07157273,
          -0.13741624,
          -1.1843894,
          0.13925572,
          0.8321032,
          -0.511208,
          -0.04256106,
          0.77125794
        ],
        [
          0.83922344,
          0.073949054,
          -0.3898089,
          -1.1943383,
          -0.22869289,
          -0.21114907,
          -1.6870986,
          -0.508619,
          -0.004642174,
          -0.42274338,
          0.24490535,
          1.5549988,
          -0.5911298,
          1.1228653,
          -0.13234867,
          0.8857931,
          -0.378097,
          0.22809157,
          0.46953303,
          0.2617974,
          0.58622867,
          -0.039683256,
          0.21186431,
          -0.4634483,
          0.090513825,
          -0.6289317,
          0.20317861,
          -1.4642608,
          -0.1176512,
          -0.856239,
          -0.7795664,
          0.4042004,
          0.4003067,
          0.0038012476,
          0.49017748,
          -0.6076182,
          0.8893669,
          0.9371207,
          -0.6497685,
          0.17824817,
          0.11993297,
          0.052623868,
          -0.022806855,
          -0.24894756,
          -0.36596155,
          -0.3355055,
          -0.027989376,
          0.6943575,
          -0.0338077,
          -0.3336587,
          0.6516542,
          1.1421301,
          -0.6344575,
          -0.76079714,
          -0.75202596,
          0.55718803,
          0.310668,
          -0.8241803,
          -0.88738304,
          0.20154749,
          0.46953565,
          -0.6274878,
          0.39565593,
          -0.21173745
        ],
        [
          -0.25358272,
          0.01623832,
          0.52273154,
          0.01297913,
          -0.57418627,
          -0.41658226,
          -0.7311763,
          0.11893701,
          0.06326587,
          -1.369554,
          0.3585597,
          0.68190056,
          -0.4628194,
          1.1507791,
          -0.84561944,
          0.61961585,
          -0.9155464,
          0.03969766,
          -0.082653284,
          -0.1646446,
          1.1409994,
          0.24999954,
          0.41802517,
          0.1059946,
          0.54194546,
          0.43514967,
          -0.44138566,
          -0.60534894,
          -0.5680727,
          -0.29972664,
          -0.010025226,
          0.08096174,
          0.5237015,
          0.86262476,
          0.07745043,
          -0.057136826,
          0.98205787,
          0.5301989,
          -0.87188095,
          -0.3746255,
          -0.6690248,
          -0.5377623,
          0.89050597,
          0.071709596,
          0.12590645,
          0.368992,
          0.36567172,
          0.2716976,
          -0.7773294,
          0.027663764,
          0.111287534,
          0.90640104,
          0.1997703,
          0.08008401,
          0.42582092,
          -0.06892691,
          0.47702718,
          -0.10710355,
          -0.55189365,
          0.34699517,
          -1.0203245,
          -0.7565513,
          0.26723653,
          -0.55906665
        ],
        [
          -0.20207591,
          0.5304564,
          0.5760623,
          0.35139015,
          -0.6520666,
          1.1502954,
          -1.3322513,
          -0.12159735,
          0.04623787,
          -0.8437216,
          0.06526648,
          0.2013013,
          0.007320645,
          0.13564076,
          -1.1079768,
          0.21531422,
          -0.92501396,
          0.1375983,
          0.43074113,
          0.3419297,
          -0.020157102,
          -0.0029494434,
          0.11710417,
          0.12883659,
          0.44494796,
          -0.2991726,
          -0.011638547,
          -0.6209693,
          0.4811033,
          0.98269606,
          0.026922142,
          0.7087726,
          -0.07595427,
          0.51249933,
          0.15055424,
          0.033402905,
          1.1505823,
          -0.11418762,
          0.0500878,
          0.14581972,
          -0.48232788,
          -0.543269,
          0.5628621,
          -0.07445555,
          0.036827434,
          -0.030300073,
          0.60736305,
          0.66341954,
          0.049695455,
          0.063822515,
          -0.0502821,
          -0.6566371,
          0.5962893,
          0.031296313,
          0.60141903,
          0.5490202,
          1.2080772,
          -0.086130075,
          -0.22426867,
          0.4135847,
          0.6113977,
          -0.5328034,
          0.70262486,
          -0.3077579
        ],
        [
          -0.027068041,
          0.13123791,
          -0.20211789,
          -0.0077538854,
          0.0815541,
          1.2208254,
          -0.8918577,
          -0.36327222,
          0.74838465,
          -0.36177957,
          0.6728925,
          0.23861636,
          -0.55311114,
          0.42744413,
          -0.6996471,
          0.53911424,
          0.08262824,
          1.1567805,
          0.93210006,
          -0.3990656,
          0.6259616,
          -0.26791105,
          1.0347643,
          0.015543559,
          0.9855339,
          -0.45289716,
          0.41520342,
          -0.4434136,
          -0.08937797,
          0.41417757,
          0.20399852,
          1.4434763,
          -0.27858415,
          -0.2754155,
          -0.056102168,
          -0.8281824,
          0.18546723,
          -0.16309856,
          0.78811926,
          0.12185777,
          -0.286002,
          -0.7985108,
          -0.057647858,
          0.008113133,
          0.40304202,
          -0.75100595,
          -0.30931532,
          0.58656424,
          -0.36275217,
          -0.09036204,
          -0.37886298,
          -0.33710653,
          0.22389217,
          -0.058635395,
          -0.33457023,
          0.8689746,
          0.2527903,
          -0.09142376,
          -0.09566681,
          0.57465065,
          0.6053846,
          -1.1525813,
          0.632282,
          -0.06413772
        ],
        [
          -0.48006237,
          -0.17667134,
          0.12738843,
          -0.046424333,
          0.1866289,
          1.0271454,
          0.09696797,
          0.76291335,
          -0.15916546,
          0.12946817,
          0.1472242,
          -0.3309659,
          -0.046534356,
          1.4387841,
          -0.7348834,
          0.3372194,
          -0.86824334,
          1.2498262,
          -0.2444323,
          -0.4615186,
          1.1474278,
          -0.1364282,
          0.71225643,
          0.017921384,
          1.3448937,
          0.33462784,
          1.4214265,
          -1.1640314,
          -0.57265174,
          -0.73091084,
          -0.7331539,
          1.1662496,
          -0.3241745,
          -0.13573234,
          0.98034936,
          -0.64878696,
          0.5032604,
          0.04376028,
          0.2479092,
          0.49637213,
          0.23697233,
          -0.07656873,
          0.119980365,
          -0.20176725,
          0.6496126,
          -0.22787522,
          0.37889567,
          -0.032868557,
          -0.34924075,
          -0.20321542,
          -0.3338905,
          -0.9547215,
          0.35079405,
          0.8879052,
          -0.08157883,
          0.61801744,
          0.7411912,
          -0.36975458,
          -0.8530841,
          0.26772368,
          0.21821126,
          -1.0688806,
          0.82139945,
          0.21501349
        ],
        [
          0.032781433,
          -0.23457001,
          0.08823006,
          -0.3178177,
          -0.08039689,
          0.9145511,
          0.06285803,
          0.6681512,
          -0.43269393,
          0.47328076,
          0.1776322,
          0.5169236,
          -0.64941084,
          1.0051799,
          -0.30735725,
          0.571753,
          -0.3002525,
          0.9626356,
          -0.14844,
          -0.4705657,
          0.99001706,
          0.5380688,
          0.9644286,
          0.5911455,
          1.3467462,
          -0.016701318,
          0.9322708,
          -0.29818425,
          -0.84218246,
          -0.33287117,
          -0.9235353,
          1.0126237,
          -0.91313493,
          -0.70050776,
          0.89722323,
          -0.19712827,
          0.6961225,
          0.002643822,
          -0.0860002,
          0.15658894,
          0.6918732,
          -0.054999817,
          0.13851006,
          -0.45498148,
          0.33802706,
          -0.6060108,
          0.4829174,
          0.27723953,
          -0.22905311,
          -0.7046515,
          -0.34827954,
          -0.6817674,
          0.10555675,
          0.2857592,
          -0.7564056,
          0.82950187,
          0.52762526,
          0.35774714,
          -0.64036566,
          0.3459715,
          0.97615445,
          -0.4236143,
          0.56150675,
          -0.20687312
        ],
        [
          -0.64998585,
          -0.20468625,
          0.129758,
          -0.61821663,
          -0.55864304,
          0.5867866,
          -0.060385816,
          -0.88842386,
          0.1235558,
          0.06385419,
          0.6417743,
          0.7505894,
          -0.638838,
          0.2287112,
          -0.22690763,
          0.80984765,
          0.020578688,
          0.59167784,
          0.2441544,
          -0.062197063,
          0.94615597,
          0.31504443,
          0.43141025,
          0.30016515,
          0.9151573,
          -0.47009858,
          0.1907794,
          -0.2576293,
          0.042933326,
          0.23007764,
          -0.6474222,
          0.57849264,
          -0.39772892,
          -0.92043847,
          0.07637154,
          0.94821554,
          0.828368,
          0.37956253,
          -0.2125444,
          1.4026711,
          0.13681115,
          -0.93781334,
          0.23556228,
          -0.73501766,
          -0.23162739,
          -0.60172,
          -0.535264,
          0.71064746,
          -0.3978391,
          0.055275958,
          0.0073605925,
          -0.6117105,
          0.1607117,
          -0.6173944,
          -0.30128574,
          1.0089022,
          0.5689198,
          0.4828202,
          -0.26065654,
          -0.200828,
          0.8919034,
          -0.37712994,
          0.55240667,
          -0.2457271
        ],
        [
          -1.2787039,
          -0.4277243,
          0.05400506,
          -0.39376608,
          0.63427705,
          0.60549045,
          -0.41223577,
          -0.7833283,
          0.3532699,
          -0.21585365,
          -0.48849982,
          0.82491034,
          -0.36262897,
          1.051381,
          -1.299553,
          -0.43934092,
          -0.32178468,
          1.2045425,
          -0.17265302,
          0.14819238,
          0.90770185,
          0.12941909,
          0.5330891,
          -0.053231336,
          -0.16950257,
          -0.3613481,
          0.55864394,
          0.39313656,
          0.7193152,
          -0.044292413,
          -0.38224328,
          1.2661937,
          -0.42032588,
          -0.66644967,
          -0.1103757,
          0.51856345,
          0.31501576,
          0.8284355,
          0.97033596,
          0.08635517,
          -0.39737207,
          -0.55934346,
          0.39426196,
          -1.6282986,
          0.1925735,
          -0.2412119,
          -0.6132909,
          0.12422808,
          -0.44642386,
          0.7370585,
          0.05464746,
          -0.7080707,
          0.09149241,
          -0.1538823,
          0.0155416615,
          0.13612115,
          0.28158215,
          0.43464372,
          0.066959806,
          0.6472512,
          -0.1378719,
          -0.4675053,
          0.99144113,
          -0.28179085
        ],
        [
          -1.1118842,
          -0.14823882,
          0.13798292,
          0.3616856,
          0.94974303,
          0.53631973,
          -0.18117703,
          -0.13426627,
          -0.16917466,
          -0.9942938,
          -0.96388495,
          0.59092706,
          -1.224778,
          0.1800098,
          -0.22532697,
          -0.78101814,
          -0.47106627,
          0.22220504,
          -0.21621221,
          0.74475545,
          0.9009713,
          0.5504696,
          0.051599033,
          0.68184805,
          0.41658908,
          -0.1517066,
          0.20504713,
          0.0434951,
          -0.115659736,
          -0.3049551,
          0.2796056,
          0.31984526,
          0.30392027,
          -0.14432888,
          0.26980114,
          -0.46543327,
          0.86719906,
          0.8083189,
          0.37146667,
          -0.432467,
          -0.101006165,
          -0.9155399,
          0.92671126,
          -1.1479849,
          -0.7990712,
          0.18666849,
          0.22762251,
          0.13508904,
          -0.5809725,
          -0.31025535,
          0.019495975,
          -0.8492972,
          0.86896706,
          0.6674442,
          0.22735865,
          0.6868602,
          0.31530368,
          0.37390128,
          -0.20791824,
          0.81910354,
          -0.56005126,
          -0.70144856,
          0.8299345,
          0.5558252
        ],
        [
          -1.1979208,
          0.18674691,
          -0.5373892,
          -0.31553802,
          1.5616596,
          0.2871023,
          -0.93985474,
          0.14528815,
          0.06555058,
          -1.1786796,
          -0.6069398,
          1.2873689,
          -0.61902666,
          1.2997187,
          -0.6268098,
          -0.11698223,
          -0.1681214,
          0.96107113,
          -0.8336661,
          -0.043928485,
          0.96409017,
          0.1574729,
          0.35871997,
          1.2562761,
          0.6648996,
          0.2585783,
          -0.35658023,
          0.39130896,
          -0.166898,
          -0.9636835,
          -0.16156936,
          0.3387867,
          -0.29642618,
          -0.82743776,
          0.106837414,
          -0.5065822,
          0.17458877,
          0.5325599,
          0.10076923,
          0.03740283,
          -0.02525243,
          -0.4888951,
          1.2579594,
          -0.8066564,
          -0.31664768,
          -0.38578406,
          -0.3559328,
          -0.56046224,
          -0.799855,
          -0.5055924,
          0.0054367827,
          -0.21667889,
          0.021113625,
          0.038379945,
          -0.50167173,
          0.098186806,
          -0.7871972,
          0.65376437,
          0.070498675,
          1.1760416,
          -1.3082986,
          -0.8436938,
          -0.0069197174,
          0.5702852
        ],
        [
          -0.103027344,
          1.4932761,
          -0.35582617,
          -0.37370712,
          0.67519337,
          -0.34001103,
          -0.27148828,
          -0.2121454,
          0.059303146,
          -0.28281894,
          0.18724011,
          0.4915886,
          -0.5262007,
          -0.031340506,
          0.64464223,
          0.88269174,
          -0.052416235,
          0.0947473,
          0.030674865,
          0.67112094,
          0.19432215,
          -0.24984205,
          -0.2315696,
          0.11998613,
          1.3209145,
          -0.013987941,
          -0.91792977,
          0.22583021,
          -0.0979431,
          -0.040554237,
          0.68787295,
          -0.11213785,
          0.60639346,
          0.29947773,
          0.38557917,
          -0.08335141,
          0.4536398,
          0.6330817,
          -0.8759341,
          -1.0290866,
          0.10558788,
          -0.8705181,
          0.6668657,
          -0.35364604,
          -0.30273607,
          0.97744894,
          -0.61411655,
          0.41823655,
          -0.9521576,
          -0.6743325,
          0.43953502,
          0.10056225,
          0.8054291,
          -0.24456805,
          -0.39017272,
          0.9318688,
          -0.59423,
          -0.29805306,
          -0.055899374,
          0.8167965,
          -1.3190184,
          -0.037788022,
          -0.36203617,
          0.6764477
        ],
        [
          0.42735246,
          0.43614075,
          -0.6234049,
          -0.5650811,
          -0.18288973,
          -0.26713014,
          0.5571841,
          1.1500401,
          0.3788824,
          1.1804662,
          0.44306642,
          0.19342966,
          0.4672639,
          -0.43036306,
          1.1395296,
          0.24625988,
          -0.116153315,
          0.16554934,
          1.0519919,
          -0.7136417,
          0.6671804,
          0.027011344,
          -0.4141727,
          1.1653308,
          0.7700824,
          -0.02951517,
          -0.37224436,
          0.8699616,
          -0.86075073,
          -0.73049784,
          0.9493597,
          0.40271893,
          0.5845773,
          -0.76322305,
          -0.28261888,
          -0.7695123,
          -1.5480835,
          0.21030256,
          0.2385091,
          -0.8499361,
          -0.097017154,
          -0.071470864,
          -0.27962884,
          0.9917355,
          0.22753471,
          0.39427662,
          -0.66657513,
          0.35314694,
          -0.22708748,
          -0.3750832,
          -0.3150538,
          0.5283116,
          0.45230514,
          -1.1905581,
          -0.51278174,
          0.943574,
          -1.0597703,
          1.1894678,
          0.38482773,
          0.73121285,
          0.20417725,
          -0.52484035,
          -1.3365368,
          0.8041505
        ],
        [
          1.2272968,
          1.001564,
          -1.2792988,
          -0.84453285,
          -0.17362724,
          0.40750054,
          0.70637393,
          0.3986302,
          1.1654342,
          0.6172222,
          0.25151107,
          -0.1567595,
          -0.032095324,
          -0.6014347,
          0.41161022,
          -0.5047161,
          0.12333213,
          -0.08456136,
          0.61311877,
          -0.13531505,
          1.2029883,
          -0.29598787,
          -0.46243954,
          0.80585986,
          0.4525907,
          0.4807075,
          -0.35961327,
          -0.15689741,
          -1.1052275,
          -0.39425173,
          0.542994,
          0.19057927,
          -0.42386824,
          -0.7763553,
          -0.34821153,
          -0.096531495,
          -1.2008089,
          -0.080012456,
          1.2926275,
          -0.15879649,
          -0.11142493,
          0.4069988,
          -0.5744814,
          0.4590605,
          0.26911992,
          -0.34593013,
          0.122100495,
          -0.023963146,
          0.40170154,
          0.14358556,
          0.40410534,
          0.22975838,
          0.3748719,
          -0.7705084,
          -0.11265435,
          0.84080535,
          -1.1758679,
          0.8864731,
          0.47196805,
          0.9603894,
          0.19614443,
          0.3088505,
          -0.951505,
          1.0349857
        ],
        [
          1.0347841,
          0.84021187,
          -0.9061223,
          0.25957355,
          1.0107676,
          0.9412819,
          -0.10285335,
          0.8135004,
          -0.18814582,
          0.8786094,
          -0.18511355,
          -0.24487041,
          -0.21502717,
          -0.91512287,
          0.39434975,
          -0.05616218,
          0.8550619,
          0.22194944,
          -0.49028572,
          -0.60804135,
          1.0944954,
          -0.16960888,
          -1.0435241,
          0.3022014,
          -0.2709041,
          0.22735819,
          0.46132073,
          -0.26530895,
          -0.60417503,
          0.21617328,
          -0.6208506,
          -0.16621725,
          -0.971472,
          -0.04386647,
          0.4306631,
          -0.19149123,
          -0.13194324,
          0.5108091,
          1.2535886,
          -0.17587428,
          0.5147538,
          -0.561089,
          -0.06150141,
          -1.1401572,
          0.45143902,
          -0.5413002,
          0.69080794,
          0.1511985,
          0.93313533,
          -0.05869985,
          -0.7829696,
          -0.8424587,
          0.648107,
          0.7385594,
          0.8323204,
          0.4787516,
          -0.8905285,
          0.65639156,
          0.32888547,
          0.74807465,
          0.71699905,
          0.7246572,
          -0.26095465,
          -0.6995898
        ],
        [
          -0.058579467,
          -0.031009618,
          0.07840795,
          0.07368204,
          -0.045424685,
          0.05690317,
          -0.059482925,
          -0.04263913,
          -0.08529281,
          0.041660238,
          0.022208102,
          -0.0036599129,
          0.0050890166,
          0.0013155189,
          -0.042737786,
          0.0018854177,
          -0.0689782,
          -0.023115402,
          0.090130486,
          -0.053389907,
          -0.093646005,
          -0.015702667,
          0.020368295,
          -0.08810075,
          0.0468423,
          -0.036027886,
          -0.03412919,
          0.07937607,
          -0.08045262,
          -0.023881657,
          0.075718656,
          0.03726619,
          0.036581054,
          -0.005384294,
          0.04188483,
          -0.02174866,
          0.024769219,
          0.018309435,
          -0.03566616,
          -0.09855825,
          -0.084579825,
          0.03444641,
          -0.03129695,
          0.07284495,
          0.012866872,
          0.07767998,
          0.030300962,
          0.018145906,
          0.06874428,
          0.034566626,
          0.053628366,
          0.027458284,
          0.0858383,
          0.06899316,
          0.054438855,
          0.017450478,
          0.03168082,
          0.08056854,
          -0.05854097,
          -0.06458574,
          -0.09092415,
          0.06525978,
          0.07596458,
          -0.043269053
        ],
        [
          -0.00034882306,
          -0.05907514,
          -0.039223317,
          -0.09260307,
          -0.036241837,
          0.013162881,
          -0.06539996,
          0.091291234,
          0.07843734,
          -0.099613704,
          0.07582484,
          0.0016079869,
          -0.06136479,
          0.09704681,
          -0.07984306,
          0.06619426,
          -0.09915934,
          0.043232124,
          0.08693799,
          0.0064766626,
          0.0799752,
          0.08876075,
          -0.0295526,
          -0.016432686,
          -0.011170413,
          -0.04726536,
          -0.046000127,
          -0.011152346,
          -0.08767897,
          -0.08242108,
          -0.06178602,
          0.025280016,
          -0.022367472,
          -0.033647086,
          -0.084150605,
          0.08149728,
          -0.015046322,
          -0.07166062,
          -0.033167616,
          -0.088454366,
          0.09438134,
          -0.018065082,
          -0.023038879,
          0.081707835,
          0.0915032,
          0.039451275,
          -0.0652727,
          0.042698007,
          -0.020721672,
          -0.035043724,
          -0.077913545,
          0.048092216,
          -0.071057476,
          -0.026316224,
          0.009731232,
          0.070925035,
          -0.02371661,
          -0.017476814,
          0.040020738,
          0.07958851,
          -0.076937355,
          0.064988256,
          0.075407304,
          -0.0027942343
        ],
        [
          -0.9480349,
          -0.7975038,
          -0.49050516,
          -0.20122427,
          0.5979418,
          0.9130385,
          -0.15115461,
          0.49628094,
          0.52112275,
          -0.16062976,
          -0.30560157,
          -0.3238159,
          -0.63090473,
          0.83195674,
          -0.87270784,
          -1.6027335,
          -1.4801891,
          0.6146833,
          0.23542976,
          -0.22945109,
          -0.21303655,
          1.3184184,
          -0.17062964,
          1.6940839,
          0.3416099,
          1.3047595,
          -0.64613897,
          0.4024897,
          -0.36705354,
          0.34390327,
          1.1135433,
          0.54533523,
          0.9851904,
          -0.31705618,
          -0.71920246,
          0.2507693,
          -0.8201947,
          -0.4967217,
          -0.20284294,
          -0.85473305,
          -0.58585167,
          0.8827523,
          0.9432308,
          -0.107090846,
          0.3774614,
          1.2295198,
          0.17000629,
          -0.88467073,
          -1.2470769,
          0.540376,
          -1.0258842,
          0.54627156,
          0.547297,
          0.8198768,
          1.2709346,
          0.6329665,
          -0.91538966,
          1.4392257,
          -1.2053012,
          1.4187099,
          -0.8792401,
          -0.87577134,
          -0.28767228,
          -0.70760375
        ],
        [
          -0.3606399,
          -0.23705448,
          -1.1249555,
          -0.5788708,
          0.9752617,
          -0.21392955,
          0.53954774,
          0.46519724,
          0.64635354,
          -0.08716898,
          -0.4469005,
          -0.6683076,
          -0.40597308,
          0.6061919,
          -1.2999904,
          -0.97378343,
          -0.8235697,
          -0.25961304,
          -0.6969161,
          0.58371794,
          0.281179,
          0.5277302,
          -0.0051607923,
          0.98608804,
          -0.15215366,
          0.5490817,
          0.031516988,
          0.25324523,
          0.10010917,
          -1.0001019,
          0.087073855,
          0.39594534,
          0.5501903,
          0.44541723,
          -0.10529743,
          -0.20149031,
          0.44255865,
          0.43994877,
          -0.5615971,
          -1.0004672,
          -0.19720112,
          0.67291176,
          0.8394426,
          -0.72101754,
          0.54295814,
          1.0601946,
          0.53285015,
          -0.937707,
          -0.17553799,
          -0.070162684,
          -0.12441082,
          0.37199143,
          0.269142,
          0.6775025,
          0.6880393,
          0.19538778,
          -0.34328833,
          0.888751,
          -0.73908687,
          0.13155365,
          -0.9671952,
          -0.39824057,
          -0.80338085,
          -0.020658368
        ],
        [
          -0.12393027,
          0.71580166,
          -0.64610285,
          0.06251869,
          1.1073217,
          -0.45365894,
          0.5304465,
          0.36295852,
          0.28519318,
          -0.21904835,
          -0.44602457,
          -0.4594651,
          -0.3437971,
          0.114442706,
          -0.9604338,
          -0.0041113105,
          0.37436423,
          -0.612643,
          -0.3698306,
          0.11331461,
          -0.3603486,
          -0.49016333,
          0.552271,
          0.52647626,
          0.54231113,
          0.61943316,
          0.2222615,
          0.25376582,
          0.06312683,
          -0.47902596,
          -0.22675876,
          0.5574084,
          -0.30494025,
          0.9487344,
          0.29278767,
          -0.63778687,
          0.77469486,
          0.066459075,
          -0.7618447,
          -0.9376774,
          0.14837025,
          0.39198056,
          1.1171578,
          -0.8795971,
          0.21371864,
          0.36999384,
          0.7279888,
          0.088692084,
          -0.027093092,
          -0.5573848,
          0.052371405,
          -0.4524305,
          0.3828735,
          -0.42338246,
          -0.046568036,
          0.3064139,
          0.097740725,
          0.14518213,
          -0.6431564,
          0.0404054,
          -0.4466106,
          0.46234316,
          -0.8232646,
          0.5727437
        ],
        [
          -0.20008379,
          0.46788025,
          -0.1705051,
          -0.212541,
          0.7606862,
          0.5224351,
          0.4492713,
          0.16203043,
          0.12270567,
          -0.59011835,
          -0.42902175,
          0.2525325,
          -0.3870773,
          -0.1055641,
          -0.29681548,
          0.2515152,
          0.37876168,
          -0.10094462,
          -0.53850144,
          -0.5865817,
          0.5173159,
          0.046004113,
          0.46305594,
          0.73823696,
          0.34954286,
          0.02865563,
          -0.50934637,
          0.71720314,
          -0.04825866,
          0.6167826,
          -0.15853134,
          0.31206825,
          -0.19246252,
          0.019274974,
          -0.27919644,
          -1.0629154,
          0.47007364,
          -0.10772208,
          0.1400534,
          -0.85334873,
          -0.41200066,
          -0.062104832,
          1.4077183,
          -0.8489068,
          0.4744109,
          -0.45998746,
          -0.15517639,
          0.21904397,
          -0.105017826,
          -0.816286,
          -0.4963144,
          -0.5937382,
          0.22875734,
          -0.26325357,
          0.75217044,
          0.6473733,
          0.7529434,
          0.71480054,
          0.13696606,
          0.54478437,
          0.174272,
          -0.2930244,
          -0.91037947,
          -0.1431012
        ],
        [
          -0.10620667,
          -0.06654046,
          0.1311656,
          0.27428466,
          -0.10720815,
          -0.25992233,
          -0.28816503,
          -0.33735788,
          -0.13433683,
          0.30501682,
          -0.36103997,
          0.47717363,
          -0.2584862,
          0.27212355,
          0.40720585,
          -0.056276474,
          -0.31415427,
          -0.34532803,
          0.20096938,
          -0.69251305,
          -0.52926856,
          -0.242566,
          0.15371513,
          0.6085463,
          0.30546802,
          -0.42627174,
          -0.30951148,
          0.3172224,
          0.24877918,
          0.4081721,
          -0.09128809,
          -0.17658584,
          0.0737607,
          -0.62536067,
          0.122264795,
          -1.4189993,
          -0.34266177,
          -0.37168932,
          0.18611586,
          0.017962148,
          -0.44446167,
          -0.4977895,
          -0.07869137,
          0.0107946955,
          0.28984302,
          -0.061674666,
          -0.43537632,
          0.32755992,
          0.52694046,
          -0.9804421,
          -0.19516657,
          -0.3931194,
          0.6685017,
          0.36690387,
          -0.11020693,
          0.2689225,
          0.3502468,
          0.65359586,
          0.1484392,
          0.21610263,
          0.8678511,
          -0.18751547,
          -0.97281116,
          -0.23786183
        ],
        [
          -0.19937453,
          0.44356474,
          0.126604,
          -0.5729634,
          0.7269048,
          -0.4039383,
          -0.3824948,
          -0.6986233,
          -0.46280015,
          0.47283185,
          0.015757998,
          0.05849525,
          -0.540975,
          0.028349709,
          -0.04188584,
          0.33727336,
          0.11294202,
          0.55409896,
          -0.7101778,
          0.082603,
          -0.843136,
          -0.41985348,
          0.5632413,
          -0.11235747,
          0.64737225,
          0.06925367,
          0.106527284,
          0.12599762,
          -0.31611374,
          0.40523827,
          -0.5115547,
          -0.50563604,
          -0.29661655,
          -0.6306908,
          0.9776078,
          -0.3034156,
          0.25675005,
          -0.42567733,
          -0.004086266,
          -0.27998883,
          0.2204876,
          -0.75566226,
          0.31378227,
          -0.7333533,
          -0.22012009,
          0.370229,
          -0.54174757,
          0.5766461,
          -0.19824147,
          -0.30966744,
          -0.07169457,
          -0.80901337,
          1.0985588,
          0.31609425,
          0.013081143,
          -0.117917135,
          0.70941025,
          0.32503763,
          -0.29446042,
          0.4123282,
          0.17199604,
          -0.47194952,
          0.1635122,
          -0.15567864
        ],
        [
          0.26434448,
          0.011447905,
          -0.25292847,
          -1.1202108,
          0.14663935,
          -0.27586192,
          0.087668985,
          0.014741506,
          -0.2521653,
          0.058767144,
          -0.012729602,
          0.22794184,
          -0.23068696,
          -0.44035023,
          -0.24220198,
          -0.08285749,
          0.052886687,
          0.28806543,
          -0.52282417,
          0.748017,
          -0.1239033,
          0.043974143,
          -0.32676414,
          0.21670108,
          -0.019241154,
          -0.06039413,
          0.7264736,
          0.42283732,
          -0.06586245,
          -0.64428145,
          -0.34354833,
          0.16928275,
          0.58286774,
          -0.26161513,
          0.52238464,
          -0.66835856,
          0.16425084,
          0.15506618,
          0.21067414,
          -0.3854126,
          -0.082946874,
          -0.1990817,
          -0.11096678,
          -0.19743776,
          0.35579363,
          0.36306846,
          0.19307418,
          -0.13227633,
          -0.2104304,
          0.07661961,
          -0.003826075,
          0.5029927,
          -0.17767973,
          0.28114638,
          -0.12042265,
          -0.23671085,
          0.4240677,
          0.6704541,
          -0.63324475,
          0.08480752,
          0.11545784,
          -0.2652803,
          0.14455664,
          0.05672922
        ],
        [
          -0.007928464,
          0.3493986,
          -0.36204964,
          -0.5107002,
          0.25969338,
          0.053987734,
          0.3847498,
          0.52373505,
          0.39802784,
          0.40545613,
          0.16105555,
          0.20569055,
          0.24419236,
          -0.18737498,
          0.003791512,
          -0.58089083,
          -0.23839095,
          -0.25214666,
          0.060545724,
          0.7318787,
          -0.00066432403,
          0.2167214,
          0.09755132,
          0.5922711,
          0.52539825,
          -0.21219,
          0.20789398,
          0.34011114,
          -0.16018248,
          -0.26866817,
          -0.03497035,
          0.13044661,
          0.4250026,
          -0.44025707,
          0.2279173,
          -0.9570284,
          0.24881667,
          -0.49153715,
          0.45580503,
          -0.11164477,
          -1.1683824,
          0.15769906,
          0.19959354,
          -0.2523659,
          0.59742373,
          0.12875882,
          -0.36978224,
          0.2652036,
          -0.14959933,
          -0.38900495,
          -0.37294805,
          0.8476485,
          -0.65467674,
          0.48843497,
          0.046084873,
          0.37015438,
          -0.090566926,
          0.19486673,
          -0.006949363,
          0.34631908,
          0.3131163,
          -0.50210893,
          0.04136519,
          -0.43591717
        ],
        [
          -0.19917195,
          -0.21157987,
          -0.17620976,
          0.08595157,
          0.42100114,
          -0.57555574,
          -0.14404525,
          0.097416736,
          -0.0705614,
          -0.29272658,
          -0.2835346,
          -0.2791285,
          0.06643046,
          -0.20984286,
          -0.09647147,
          0.43325603,
          -0.8534762,
          -0.3098657,
          -0.023222996,
          0.5471822,
          0.31764928,
          0.23999013,
          0.34746042,
          0.1072716,
          -0.19400403,
          0.114374176,
          -0.38392478,
          0.07065577,
          -0.25634518,
          -0.5690535,
          -0.2187945,
          -0.1730676,
          0.44921875,
          0.28217122,
          0.2588051,
          -0.9379851,
          -0.23636949,
          -0.21349473,
          -0.024119083,
          0.32909018,
          -1.0788219,
          0.19168314,
          0.18870477,
          -0.20426048,
          0.37567347,
          0.42371756,
          -0.119398974,
          0.36998096,
          -0.12255753,
          0.18517308,
          -0.18321781,
          0.30635428,
          0.10745274,
          0.7403199,
          0.5949422,
          -0.21339226,
          -0.3847205,
          0.1221663,
          0.17140242,
          0.21171756,
          -0.0763361,
          -0.9798556,
          0.28922123,
          -1.0520986
        ],
        [
          0.30331042,
          0.32199615,
          -0.061323218,
          0.16070947,
          0.45855516,
          -0.26299962,
          -0.12254875,
          -0.6427754,
          0.37939742,
          -0.6644452,
          -0.10684008,
          -0.18847382,
          -0.20955005,
          0.1349859,
          -0.33949855,
          0.41566482,
          0.5579288,
          0.15840952,
          0.19204904,
          -0.023825439,
          0.10973881,
          0.1305132,
          0.08838104,
          0.10047498,
          -0.08524743,
          0.3788762,
          -0.41252652,
          -0.25597748,
          -0.32297978,
          0.3936351,
          0.03520051,
          0.34103832,
          0.23736861,
          -0.1533463,
          -0.08868724,
          -0.16416979,
          0.20842296,
          -0.1617506,
          0.29673108,
          0.4310034,
          -1.4040579,
          0.08267407,
          -0.20301975,
          0.06786161,
          0.1921157,
          -0.14974363,
          0.088046424,
          0.43172273,
          0.1001487,
          0.17356785,
          0.2297311,
          -0.11399056,
          0.30102956,
          0.04387052,
          -0.04971816,
          -0.05428018,
          -0.7372361,
          0.03759477,
          0.030484287,
          -0.10519001,
          0.0053473227,
          -0.29842117,
          0.36117047,
          -0.6625231
        ],
        [
          0.14332154,
          0.24822998,
          0.4047271,
          -0.040571865,
          0.24372616,
          -0.1671303,
          -0.08034828,
          -0.59727037,
          0.056650188,
          -0.18005301,
          0.16716895,
          0.5182739,
          -0.18444511,
          -0.03883092,
          0.4060071,
          0.09780037,
          0.041496962,
          0.09453381,
          0.54187846,
          -0.039861612,
          0.18635026,
          0.12088941,
          0.562253,
          0.39152265,
          0.3798659,
          0.31826723,
          -0.20622848,
          0.12917995,
          -0.62121814,
          0.7757231,
          0.35502437,
          0.18285108,
          0.47692588,
          -0.30196375,
          0.06546534,
          0.34122992,
          -0.09006456,
          0.48982272,
          0.110623404,
          0.09907373,
          -0.9876401,
          -0.33870995,
          0.22300479,
          -0.2818921,
          -0.0297549,
          0.07793707,
          -0.083018094,
          0.42665854,
          -0.16373067,
          0.20079184,
          -0.36819068,
          -0.28423938,
          0.43617773,
          -0.17385876,
          0.09831337,
          0.29580396,
          -1.180881,
          -0.009803315,
          -0.29583055,
          0.098371774,
          0.100856796,
          -0.42504507,
          0.34340724,
          -0.47052607
        ],
        [
          0.102495335,
          -0.497324,
          -0.10073037,
          -0.040683493,
          -0.16055661,
          -0.057995375,
          -0.5866821,
          -0.31286255,
          -0.23745422,
          0.022933133,
